{
  "layers" : [
    {
      "layer" : [
        {
          "biases" : {
            "label" : "",
            "id" : "3DECE1C1-3AC6-4EEB-8FC6-9B9422070B5E",
            "value" : [

            ],
            "context" : {

            }
          },
          "weights" : {
            "label" : "",
            "id" : "B45F5A96-06DD-4CF4-8EEA-9CCA3DD34F38",
            "value" : [
              [
                [
                  1.1918320655822754,
                  1.7971955537796021,
                  1.4340243339538574,
                  1.9423160552978516,
                  1.8385390043258667,
                  -1.8284680843353271,
                  -2.3376214504241943,
                  1.0770144462585449,
                  -2.1319336891174316,
                  2.4612522125244141,
                  0.81210923194885254,
                  1.8216924667358398,
                  2.1156396865844727,
                  1.7961243391036987,
                  2.2211289405822754,
                  1.6004205942153931,
                  2.2810072898864746,
                  -2.3832757472991943,
                  -2.4012405872344971,
                  -1.5375303030014038,
                  2.0348355770111084,
                  1.0854214429855347,
                  1.7747600078582764,
                  -1.9948915243148804,
                  -1.1988067626953125,
                  1.8411537408828735,
                  -2.1290967464447021,
                  2.0570433139801025,
                  1.8857001066207886,
                  -1.9480993747711182,
                  2.1376278400421143,
                  2.1293849945068359,
                  2.1313784122467041,
                  0.36945781111717224,
                  1.5211343765258789,
                  -1.6716187000274658,
                  1.5728260278701782,
                  -0.84391641616821289,
                  0.95782184600830078,
                  -1.0759108066558838,
                  -1.3507322072982788,
                  2.0773203372955322,
                  2.2682311534881592,
                  2.095820426940918,
                  1.4574871063232422,
                  1.3959072828292847,
                  1.6877168416976929,
                  -0.79693514108657837,
                  -1.3503419160842896,
                  1.4036253690719604,
                  -1.722083568572998,
                  -1.5013161897659302,
                  -1.1300022602081299,
                  1.7918142080307007,
                  -2.0323562622070312,
                  1.2191263437271118,
                  -2.0157768726348877,
                  1.9167425632476807,
                  1.5926870107650757,
                  -2.1005163192749023,
                  2.0564031600952148,
                  2.1119453907012939,
                  1.4936696290969849,
                  1.8428879976272583,
                  -2.0135324001312256,
                  -2.4486675262451172,
                  1.8731073141098022,
                  2.1152606010437012,
                  -1.5388543605804443,
                  -1.9971445798873901,
                  2.0358066558837891,
                  1.9087601900100708,
                  1.0765746831893921,
                  1.4016638994216919,
                  1.8707900047302246,
                  -1.0621476173400879,
                  2.4920437335968018,
                  -0.76088643074035645,
                  1.4934009313583374,
                  1.8227502107620239,
                  -0.70229202508926392,
                  -2.3953773975372314,
                  -2.6085925102233887,
                  -2.2397356033325195,
                  -2.3916754722595215,
                  -0.92614912986755371,
                  -1.9140388965606689,
                  -1.6505436897277832,
                  -1.8008184432983398,
                  -2.1170792579650879,
                  -0.70244354009628296,
                  -1.1186424493789673,
                  -1.3386250734329224,
                  -1.615151047706604,
                  -1.925864577293396,
                  -1.3816946744918823,
                  -1.4649893045425415,
                  1.05715012550354,
                  2.1243162155151367,
                  1.1348422765731812
                ],
                [
                  -0.49744990468025208,
                  -0.79080206155776978,
                  -0.35912111401557922,
                  -0.3976801335811615,
                  -0.78826063871383667,
                  0.819374680519104,
                  0.60619324445724487,
                  -0.25085696578025818,
                  0.27691417932510376,
                  -0.549072265625,
                  -0.47809788584709167,
                  -0.78668808937072754,
                  -0.92252266407012939,
                  -0.7504889965057373,
                  -0.74313461780548096,
                  -0.65737128257751465,
                  -0.66721826791763306,
                  0.71117037534713745,
                  0.7512546181678772,
                  0.44239726662635803,
                  -0.71122646331787109,
                  -0.40412324666976929,
                  -0.65992230176925659,
                  0.68960392475128174,
                  0.65407019853591919,
                  -0.47752130031585693,
                  0.59786766767501831,
                  -0.98177188634872437,
                  -0.81933438777923584,
                  0.4722169041633606,
                  -0.73501032590866089,
                  -0.64544570446014404,
                  -0.62699633836746216,
                  -0.35178956389427185,
                  -0.27197334170341492,
                  0.87055021524429321,
                  -0.49013063311576843,
                  0.42827245593070984,
                  -0.51104569435119629,
                  0.41542589664459229,
                  0.41888406872749329,
                  -0.72510361671447754,
                  -0.60418283939361572,
                  -0.53408545255661011,
                  -0.42273545265197754,
                  -0.52015125751495361,
                  -1.0093797445297241,
                  0.38083025813102722,
                  0.47107243537902832,
                  -0.41542261838912964,
                  0.65278607606887817,
                  0.50256162881851196,
                  0.6280595064163208,
                  -0.86005795001983643,
                  0.88999283313751221,
                  -0.52215808629989624,
                  0.84915852546691895,
                  -0.69091892242431641,
                  -0.75951343774795532,
                  0.66946595907211304,
                  -0.76762628555297852,
                  -0.68700480461120605,
                  -0.84523856639862061,
                  -0.9302482008934021,
                  0.75585818290710449,
                  0.80236256122589111,
                  -0.9982486367225647,
                  -0.84516340494155884,
                  0.52374392747879028,
                  0.77756112813949585,
                  -0.38534200191497803,
                  -0.62048816680908203,
                  -0.41563883423805237,
                  -0.3395112156867981,
                  -0.50138437747955322,
                  0.48973280191421509,
                  -0.77587872743606567,
                  0.26032763719558716,
                  -0.70983827114105225,
                  -0.69175595045089722,
                  0.46841010451316833,
                  0.80618023872375488,
                  0.62738877534866333,
                  0.60412126779556274,
                  0.67693412303924561,
                  0.49397304654121399,
                  0.51382946968078613,
                  0.56551384925842285,
                  0.52013403177261353,
                  0.68001747131347656,
                  0.1890663206577301,
                  0.59392702579498291,
                  0.52918624877929688,
                  0.54993021488189697,
                  0.57870829105377197,
                  0.29146531224250793,
                  0.7191128134727478,
                  -0.56540596485137939,
                  -0.73824304342269897,
                  -0.53780502080917358
                ],
                [
                  1.28514564037323,
                  -1.9609565734863281,
                  -1.109194278717041,
                  -1.4296950101852417,
                  -1.2040306329727173,
                  1.5188162326812744,
                  1.8785347938537598,
                  0.36748477816581726,
                  0.36844134330749512,
                  -4.6298437118530273,
                  0.97349321842193604,
                  -1.4053134918212891,
                  -2.3813738822937012,
                  -1.1923269033432007,
                  -1.943199634552002,
                  -0.75520670413970947,
                  -3.5654995441436768,
                  2.2273204326629639,
                  1.2424240112304688,
                  -0.7858847975730896,
                  -3.1231639385223389,
                  1.2666294574737549,
                  -1.6916038990020752,
                  1.9914544820785522,
                  -0.22525981068611145,
                  -1.0118473768234253,
                  1.2799532413482666,
                  -1.6121073961257935,
                  -1.5038586854934692,
                  0.84557455778121948,
                  -1.523479700088501,
                  -1.1680057048797607,
                  -1.5219937562942505,
                  2.2988438606262207,
                  0.50729352235794067,
                  2.396601676940918,
                  -0.38063013553619385,
                  -0.6759607195854187,
                  0.96538430452346802,
                  -0.023558275774121284,
                  0.92599189281463623,
                  -1.7095024585723877,
                  -2.0002524852752686,
                  -1.4816173315048218,
                  -0.35978984832763672,
                  0.24295942485332489,
                  0.52900242805480957,
                  -1.1748074293136597,
                  0.28416609764099121,
                  -0.1658627986907959,
                  0.46208027005195618,
                  -0.17999851703643799,
                  -0.13729080557823181,
                  -1.8862491846084595,
                  1.4097855091094971,
                  -0.445323646068573,
                  2.3950443267822266,
                  -0.82149618864059448,
                  -0.12996433675289154,
                  3.163684606552124,
                  -1.4683384895324707,
                  -2.4758007526397705,
                  0.13374647498130798,
                  0.042133189737796783,
                  1.7326310873031616,
                  1.6967990398406982,
                  -2.1371259689331055,
                  -2.5103335380554199,
                  1.0843043327331543,
                  0.97685682773590088,
                  -1.2386409044265747,
                  -1.3040567636489868,
                  0.17258335649967194,
                  -0.12719368934631348,
                  -1.0415490865707397,
                  -0.98729747533798218,
                  -1.6440551280975342,
                  -1.3981586694717407,
                  0.5209924578666687,
                  -1.0337206125259399,
                  -0.45251530408859253,
                  4.006098747253418,
                  3.7513291835784912,
                  1.2981019020080566,
                  2.2175889015197754,
                  -0.5272287130355835,
                  1.4159077405929565,
                  1.2997329235076904,
                  1.2448400259017944,
                  -0.08916918933391571,
                  -0.68803030252456665,
                  0.33128026127815247,
                  0.95210838317871094,
                  -0.5789642333984375,
                  1.3911916017532349,
                  0.21736752986907959,
                  0.69091337919235229,
                  1.4999419450759888,
                  -0.76431727409362793,
                  0.35982748866081238
                ],
                [
                  18.344850540161133,
                  17.917680740356445,
                  18.159523010253906,
                  18.285991668701172,
                  18.193136215209961,
                  -18.07011604309082,
                  -17.992975234985352,
                  18.484533309936523,
                  -18.118284225463867,
                  16.489715576171875,
                  18.253599166870117,
                  18.239238739013672,
                  17.793317794799805,
                  17.994550704956055,
                  18.099285125732422,
                  18.272945404052734,
                  17.542966842651367,
                  -18.101179122924805,
                  -18.461923599243164,
                  -18.584892272949219,
                  17.983161926269531,
                  18.223213195800781,
                  18.074197769165039,
                  -18.196962356567383,
                  -18.127925872802734,
                  18.042081832885742,
                  -18.082494735717773,
                  18.019268035888672,
                  18.000694274902344,
                  -18.062873840332031,
                  18.08354377746582,
                  17.94713020324707,
                  18.086437225341797,
                  18.133382797241211,
                  18.402629852294922,
                  -17.946521759033203,
                  18.140253067016602,
                  -18.285106658935547,
                  18.573757171630859,
                  -18.215963363647461,
                  -17.837154388427734,
                  18.017005920410156,
                  18.00788688659668,
                  17.889322280883789,
                  18.210155487060547,
                  18.232427597045898,
                  18.124940872192383,
                  -18.376060485839844,
                  -17.994815826416016,
                  18.343845367431641,
                  -18.125888824462891,
                  -18.378244400024414,
                  -17.965179443359375,
                  17.697568893432617,
                  -17.976827621459961,
                  18.060544967651367,
                  -18.091392517089844,
                  18.408916473388672,
                  17.992849349975586,
                  -17.696281433105469,
                  18.077976226806641,
                  17.891677856445312,
                  18.427350997924805,
                  18.33428955078125,
                  -18.053325653076172,
                  -18.170158386230469,
                  17.852243423461914,
                  17.846569061279297,
                  -18.004323959350586,
                  -18.024602890014648,
                  18.124057769775391,
                  18.48472785949707,
                  18.163982391357422,
                  18.046749114990234,
                  18.309595108032227,
                  -18.50880241394043,
                  18.220996856689453,
                  -18.281158447265625,
                  18.571828842163086,
                  18.214605331420898,
                  -17.969566345214844,
                  -17.419431686401367,
                  -17.487821578979492,
                  -18.554628372192383,
                  -18.114355087280273,
                  -18.253416061401367,
                  -18.314327239990234,
                  -18.162988662719727,
                  -18.163478851318359,
                  -18.22749137878418,
                  -18.170192718505859,
                  -17.677635192871094,
                  -17.866716384887695,
                  -18.41594123840332,
                  -18.030717849731445,
                  -18.340732574462891,
                  -17.75413703918457,
                  18.764553070068359,
                  18.248655319213867,
                  18.285642623901367
                ],
                [
                  -0.52280467748641968,
                  0.63903719186782837,
                  -0.83500444889068604,
                  -0.4245578944683075,
                  -1.1060054302215576,
                  0.76821506023406982,
                  0.56878983974456787,
                  -0.70216792821884155,
                  0.19131037592887878,
                  -0.066566377878189087,
                  -0.71185487508773804,
                  0.61479681730270386,
                  0.25689753890037537,
                  -0.20528998970985413,
                  0.40778303146362305,
                  0.041279658675193787,
                  0.14217853546142578,
                  -0.33724808692932129,
                  0.72766810655593872,
                  -0.39589217305183411,
                  0.17823342978954315,
                  -0.2804780900478363,
                  -0.16745048761367798,
                  -0.32619345188140869,
                  0.36966732144355774,
                  -0.067514657974243164,
                  0.086403682827949524,
                  -0.10485425591468811,
                  -0.2154812216758728,
                  0.42108547687530518,
                  -0.29672056436538696,
                  -0.036968529224395752,
                  -0.26311704516410828,
                  -0.26912134885787964,
                  0.35982340574264526,
                  -0.10413990169763565,
                  -0.30078905820846558,
                  0.4949205219745636,
                  -0.18569312989711761,
                  0.25367659330368042,
                  1.1399364471435547,
                  -0.23635223507881165,
                  -0.049103628844022751,
                  -0.094368927180767059,
                  -0.92688101530075073,
                  -0.27261218428611755,
                  -0.087544038891792297,
                  0.6548035740852356,
                  0.51878297328948975,
                  0.46440541744232178,
                  0.25289908051490784,
                  0.51991844177246094,
                  0.36836233735084534,
                  -0.27631849050521851,
                  -0.28590190410614014,
                  -0.11211084574460983,
                  0.25162017345428467,
                  -0.57269328832626343,
                  0.1198919415473938,
                  -0.002214793348684907,
                  -0.40977931022644043,
                  0.25986868143081665,
                  -0.092729084193706512,
                  0.49949872493743896,
                  1.016029953956604,
                  0.64001524448394775,
                  0.16611337661743164,
                  0.072180144488811493,
                  0.4901181161403656,
                  -0.2216726690530777,
                  0.20427675545215607,
                  -0.54329150915145874,
                  -1.1744049787521362,
                  -1.787358283996582,
                  -0.21006780862808228,
                  0.22307662665843964,
                  -0.45719039440155029,
                  0.3506712019443512,
                  -0.39990663528442383,
                  -0.026971742510795593,
                  1.334833025932312,
                  -0.21549107134342194,
                  -0.020793069154024124,
                  0.52179050445556641,
                  0.2379099577665329,
                  1.2015770673751831,
                  0.057842608541250229,
                  0.60904651880264282,
                  0.91690945625305176,
                  0.78457468748092651,
                  0.6648411750793457,
                  0.6622578501701355,
                  0.72844475507736206,
                  -0.13720743358135223,
                  -0.18191376328468323,
                  0.9599260687828064,
                  0.47151646018028259,
                  0.20198869705200195,
                  -0.22285272181034088,
                  -0.69612836837768555
                ],
                [
                  1.344490647315979,
                  -0.17518404126167297,
                  0.51673263311386108,
                  0.43823090195655823,
                  0.25716575980186462,
                  -0.40917247533798218,
                  0.083662927150726318,
                  0.76257097721099854,
                  -0.25274449586868286,
                  -0.76954180002212524,
                  1.0730108022689819,
                  -0.30738046765327454,
                  -0.14555272459983826,
                  0.29723325371742249,
                  -0.073462583124637604,
                  0.15397913753986359,
                  -0.67492139339447021,
                  0.39004257321357727,
                  0.13666440546512604,
                  -0.45339199900627136,
                  -0.18159866333007812,
                  0.65021795034408569,
                  0.51835900545120239,
                  0.23175522685050964,
                  -0.70812618732452393,
                  0.42984947562217712,
                  -0.11656811833381653,
                  0.062357529997825623,
                  0.32904183864593506,
                  -0.34377789497375488,
                  -0.083792895078659058,
                  -0.37408274412155151,
                  0.28708824515342712,
                  1.0844151973724365,
                  0.6244586706161499,
                  -0.013965458609163761,
                  0.53688573837280273,
                  -1.0019196271896362,
                  0.82137620449066162,
                  -0.56709820032119751,
                  -0.7370116114616394,
                  0.1637701690196991,
                  -0.31091201305389404,
                  0.0081368656828999519,
                  0.84243392944335938,
                  0.72403895854949951,
                  0.4309135377407074,
                  -0.92535477876663208,
                  -0.79403764009475708,
                  0.33953315019607544,
                  -0.48989254236221313,
                  -0.65889924764633179,
                  -0.84469997882843018,
                  0.2849179208278656,
                  0.03861936554312706,
                  0.52415716648101807,
                  0.042287800461053848,
                  0.2737714946269989,
                  0.54103636741638184,
                  0.1906895786523819,
                  0.22033697366714478,
                  -0.47948738932609558,
                  0.48828795552253723,
                  0.30473539233207703,
                  -0.26630198955535889,
                  -0.0082494243979454041,
                  0.045958589762449265,
                  -0.23690001666545868,
                  -0.56850063800811768,
                  -0.28668245673179626,
                  0.021040307357907295,
                  0.31013587117195129,
                  0.87646722793579102,
                  0.68081426620483398,
                  0.34460687637329102,
                  -0.64403730630874634,
                  0.042384862899780273,
                  -1.0450954437255859,
                  0.57045412063598633,
                  0.073915712535381317,
                  -0.69782024621963501,
                  0.60857415199279785,
                  0.58071756362915039,
                  -0.082049012184143066,
                  0.22828762233257294,
                  -0.76784569025039673,
                  0.029766600579023361,
                  -0.54101181030273438,
                  -0.75511634349822998,
                  -0.40902167558670044,
                  -1.0931504964828491,
                  -0.71080636978149414,
                  -0.59868532419204712,
                  -0.43542832136154175,
                  -0.096536964178085327,
                  -0.78894633054733276,
                  -0.70881456136703491,
                  0.33435970544815063,
                  0.24839076399803162,
                  0.83719360828399658
                ],
                [
                  -1.691962718963623,
                  -0.33946382999420166,
                  -0.22499962151050568,
                  -0.17768774926662445,
                  -0.32502669095993042,
                  0.50038009881973267,
                  0.26743572950363159,
                  -0.56673425436019897,
                  0.17382404208183289,
                  -0.60952162742614746,
                  -1.2634196281433105,
                  -0.44267281889915466,
                  -0.41055762767791748,
                  -0.34672865271568298,
                  -0.41659775376319885,
                  -0.50699937343597412,
                  -0.53793466091156006,
                  0.46116411685943604,
                  0.32456234097480774,
                  0.38630187511444092,
                  -0.49519473314285278,
                  -0.3471301794052124,
                  -0.64386385679244995,
                  0.36817640066146851,
                  0.897025465965271,
                  -0.32701176404953003,
                  0.32015952467918396,
                  -0.35668614506721497,
                  -0.35655486583709717,
                  0.14620411396026611,
                  -0.2054966539144516,
                  -0.49765500426292419,
                  -0.34620559215545654,
                  -1.32456374168396,
                  -0.11907161027193069,
                  0.35117062926292419,
                  -0.41223040223121643,
                  1.2974036931991577,
                  -0.98583221435546875,
                  1.1308212280273438,
                  1.2496951818466187,
                  -0.31120938062667847,
                  -0.39218443632125854,
                  -0.28914618492126465,
                  -0.3471839427947998,
                  -0.85361051559448242,
                  -0.95712357759475708,
                  1.6070792675018311,
                  0.71886783838272095,
                  -0.44193628430366516,
                  0.47598859667778015,
                  0.35406216979026794,
                  1.3467673063278198,
                  -0.50441598892211914,
                  0.26401904225349426,
                  -0.68455851078033447,
                  0.36819818615913391,
                  -0.31256642937660217,
                  -0.41136452555656433,
                  0.23836328089237213,
                  -0.40377703309059143,
                  -0.2255072295665741,
                  -0.40072771906852722,
                  -0.29953402280807495,
                  0.39863863587379456,
                  0.17822554707527161,
                  -0.61937350034713745,
                  -0.38178214430809021,
                  0.65333908796310425,
                  0.58136451244354248,
                  -0.35292619466781616,
                  -0.61828351020812988,
                  -1.3921440839767456,
                  -0.95628529787063599,
                  -0.18301600217819214,
                  0.55392545461654663,
                  -0.25499984622001648,
                  0.82719343900680542,
                  -0.25162678956985474,
                  -0.22309450805187225,
                  1.4860625267028809,
                  0.39647519588470459,
                  0.77715784311294556,
                  0.29191845655441284,
                  0.26610806584358215,
                  1.0276256799697876,
                  0.41277584433555603,
                  0.40426662564277649,
                  0.26199376583099365,
                  0.2687283456325531,
                  1.3822592496871948,
                  1.1732208728790283,
                  1.2484360933303833,
                  0.38378000259399414,
                  0.28015324473381042,
                  0.13379855453968048,
                  1.2127330303192139,
                  -0.20973809063434601,
                  -0.26958131790161133,
                  -1.1611570119857788
                ],
                [
                  1.1568708419799805,
                  1.1512185335159302,
                  1.1010227203369141,
                  1.1173304319381714,
                  1.1297138929367065,
                  -1.1762824058532715,
                  -1.0688438415527344,
                  1.1312047243118286,
                  -1.0918768644332886,
                  1.1131356954574585,
                  1.1420612335205078,
                  1.2036674022674561,
                  1.2048401832580566,
                  1.1332595348358154,
                  1.156922459602356,
                  1.1904852390289307,
                  1.2071568965911865,
                  -1.1841568946838379,
                  -1.1054896116256714,
                  -1.227698802947998,
                  1.1168124675750732,
                  1.1218687295913696,
                  1.2323178052902222,
                  -1.0792609453201294,
                  -1.2307285070419312,
                  1.2074345350265503,
                  -1.1461554765701294,
                  1.1848657131195068,
                  1.1569885015487671,
                  -1.0955016613006592,
                  1.2004208564758301,
                  1.1915982961654663,
                  1.1190886497497559,
                  1.190253734588623,
                  1.2232781648635864,
                  -1.1735117435455322,
                  1.1973178386688232,
                  -1.1769402027130127,
                  1.2141623497009277,
                  -1.2016947269439697,
                  -1.1667180061340332,
                  1.1907024383544922,
                  1.2050213813781738,
                  1.11732017993927,
                  1.1009937524795532,
                  1.152104377746582,
                  1.1876745223999023,
                  -1.1629817485809326,
                  -1.1348813772201538,
                  1.1124918460845947,
                  -1.2218235731124878,
                  -1.126623272895813,
                  -1.2771633863449097,
                  1.2261418104171753,
                  -1.1533300876617432,
                  1.1925976276397705,
                  -1.0769145488739014,
                  1.1794224977493286,
                  1.1905440092086792,
                  -1.1158410310745239,
                  1.1689443588256836,
                  1.1280802488327026,
                  1.1344667673110962,
                  1.1750552654266357,
                  -1.1027053594589233,
                  -1.0503369569778442,
                  1.1686134338378906,
                  1.1842483282089233,
                  -1.1396030187606812,
                  -1.2569081783294678,
                  1.1065417528152466,
                  1.1500433683395386,
                  1.2306541204452515,
                  1.159102201461792,
                  1.1497913599014282,
                  -1.1326736211776733,
                  1.0702521800994873,
                  -1.1911971569061279,
                  1.1029574871063232,
                  1.1135203838348389,
                  -1.1659600734710693,
                  -1.2403808832168579,
                  -1.1803531646728516,
                  -1.0831828117370605,
                  -1.0743123292922974,
                  -1.2283560037612915,
                  -1.0980029106140137,
                  -1.1294491291046143,
                  -1.0482916831970215,
                  -1.115227222442627,
                  -1.1722310781478882,
                  -1.1902823448181152,
                  -1.1929049491882324,
                  -1.1623885631561279,
                  -1.2096441984176636,
                  -1.1560938358306885,
                  -1.2370580434799194,
                  1.2248417139053345,
                  1.1524348258972168,
                  1.2730242013931274
                ],
                [
                  -1.4686380624771118,
                  -0.12002963572740555,
                  -0.95226156711578369,
                  -1.0257571935653687,
                  -0.83609801530838013,
                  1.2956438064575195,
                  1.6843719482421875,
                  -0.98605632781982422,
                  1.7823156118392944,
                  1.1441668272018433,
                  -1.2321181297302246,
                  0.31501054763793945,
                  -0.77808660268783569,
                  -0.69622194766998291,
                  0.065431192517280579,
                  -0.89440292119979858,
                  0.5245898962020874,
                  0.39308819174766541,
                  1.7445398569107056,
                  1.0904148817062378,
                  -0.095397740602493286,
                  -1.3344782590866089,
                  -0.889274001121521,
                  0.43899917602539062,
                  1.1682984828948975,
                  -1.7780112028121948,
                  1.0111032724380493,
                  -1.5438445806503296,
                  -1.2357187271118164,
                  1.6579941511154175,
                  -0.88769614696502686,
                  -1.5869693756103516,
                  -1.3465926647186279,
                  -2.0400748252868652,
                  -1.1355407238006592,
                  -0.34263831377029419,
                  -0.99308228492736816,
                  1.1231123208999634,
                  -1.2709370851516724,
                  1.3320651054382324,
                  0.87385857105255127,
                  -1.4343268871307373,
                  -1.8920270204544067,
                  -1.1225996017456055,
                  -1.196244478225708,
                  -1.0986146926879883,
                  -1.7439799308776855,
                  1.4975818395614624,
                  1.0555235147476196,
                  -1.0559271574020386,
                  0.93240863084793091,
                  1.2788453102111816,
                  1.2583643198013306,
                  -0.74903643131256104,
                  0.47056478261947632,
                  -1.145734429359436,
                  0.93073403835296631,
                  -1.2768125534057617,
                  -1.0634400844573975,
                  -0.3657250702381134,
                  -1.1284983158111572,
                  -0.42766386270523071,
                  -1.0293903350830078,
                  -1.1099673509597778,
                  1.3799941539764404,
                  1.7136332988739014,
                  -1.0526123046875,
                  -0.7052190899848938,
                  0.93123358488082886,
                  1.2495507001876831,
                  -0.99724185466766357,
                  -0.43616542220115662,
                  -1.1256395578384399,
                  -1.089718222618103,
                  -0.92283684015274048,
                  1.5141919851303101,
                  -1.4373667240142822,
                  1.4295315742492676,
                  -1.187156081199646,
                  -0.93156373500823975,
                  1.335518479347229,
                  -0.77355664968490601,
                  0.39870712161064148,
                  2.0641095638275146,
                  1.6602469682693481,
                  1.1381320953369141,
                  0.51605391502380371,
                  1.0472463369369507,
                  0.67364716529846191,
                  1.8331702947616577,
                  1.2094429731369019,
                  1.1044062376022339,
                  0.85729777812957764,
                  1.1494903564453125,
                  0.90284675359725952,
                  0.92228704690933228,
                  0.96530765295028687,
                  -1.4433333873748779,
                  -1.5305191278457642,
                  -1.0744984149932861
                ],
                [
                  17.016916275024414,
                  16.400718688964844,
                  16.374176025390625,
                  16.609409332275391,
                  16.830337524414062,
                  -16.55693244934082,
                  -16.608596801757812,
                  17.152999877929688,
                  -16.850326538085938,
                  15.91713809967041,
                  16.945030212402344,
                  17.136690139770508,
                  16.771663665771484,
                  16.575386047363281,
                  16.798835754394531,
                  16.885128021240234,
                  16.319906234741211,
                  -16.869966506958008,
                  -17.165019989013672,
                  -17.323175430297852,
                  16.489192962646484,
                  16.934377670288086,
                  16.544694900512695,
                  -17.10582160949707,
                  -16.53877067565918,
                  16.656320571899414,
                  -16.720220565795898,
                  16.637224197387695,
                  16.503936767578125,
                  -16.688667297363281,
                  16.811660766601562,
                  16.890619277954102,
                  16.601303100585938,
                  17.354751586914062,
                  17.382270812988281,
                  -16.55059814453125,
                  16.676685333251953,
                  -16.834463119506836,
                  17.006725311279297,
                  -16.612117767333984,
                  -16.612569808959961,
                  16.610231399536133,
                  16.608360290527344,
                  16.671867370605469,
                  16.450826644897461,
                  17.142915725708008,
                  17.063873291015625,
                  -16.974754333496094,
                  -16.546976089477539,
                  16.727396011352539,
                  -16.924020767211914,
                  -16.993112564086914,
                  -16.558364868164062,
                  16.337972640991211,
                  -16.823640823364258,
                  16.412107467651367,
                  -16.366373062133789,
                  17.259143829345703,
                  17.036273956298828,
                  -16.533050537109375,
                  16.474344253540039,
                  16.476245880126953,
                  17.134401321411133,
                  17.288345336914062,
                  -16.942447662353516,
                  -16.870662689208984,
                  16.362277984619141,
                  16.540699005126953,
                  -16.355493545532227,
                  -16.597002029418945,
                  16.436447143554688,
                  17.31756591796875,
                  16.755193710327148,
                  16.813579559326172,
                  16.666915893554688,
                  -17.045202255249023,
                  17.159368515014648,
                  -17.251768112182617,
                  17.695295333862305,
                  17.043310165405273,
                  -16.618915557861328,
                  -16.580120086669922,
                  -16.521984100341797,
                  -17.102100372314453,
                  -16.563495635986328,
                  -16.703079223632812,
                  -16.92474365234375,
                  -16.730703353881836,
                  -16.839984893798828,
                  -16.804008483886719,
                  -16.802112579345703,
                  -16.35833740234375,
                  -16.676532745361328,
                  -17.075639724731445,
                  -16.752098083496094,
                  -17.187580108642578,
                  -16.49909782409668,
                  17.638513565063477,
                  16.870073318481445,
                  16.931205749511719
                ],
                [
                  0.94061434268951416,
                  0.88178670406341553,
                  0.9207567572593689,
                  1.0000919103622437,
                  0.82370191812515259,
                  -0.93042594194412231,
                  -1.1949756145477295,
                  0.98460811376571655,
                  -0.88539862632751465,
                  1.5092041492462158,
                  0.88814496994018555,
                  1.039690375328064,
                  1.2410074472427368,
                  0.85391336679458618,
                  0.84645038843154907,
                  0.90881502628326416,
                  1.337066650390625,
                  -1.1297299861907959,
                  -1.0485899448394775,
                  -0.85648548603057861,
                  1.1930699348449707,
                  0.79727894067764282,
                  0.92955154180526733,
                  -1.012235164642334,
                  -0.83738833665847778,
                  1.0028164386749268,
                  -0.91147083044052124,
                  1.1022727489471436,
                  0.86864817142486572,
                  -0.8460993766784668,
                  0.98286688327789307,
                  0.95956712961196899,
                  0.83343160152435303,
                  0.79712438583374023,
                  0.94558781385421753,
                  -1.1156315803527832,
                  0.87421423196792603,
                  -0.73392927646636963,
                  0.86734968423843384,
                  -0.72623699903488159,
                  -0.82069194316864014,
                  0.93265646696090698,
                  1.0218299627304077,
                  1.122248649597168,
                  0.92254143953323364,
                  1.1304333209991455,
                  0.94601380825042725,
                  -0.88107746839523315,
                  -1.029865026473999,
                  0.70899295806884766,
                  -0.91764718294143677,
                  -0.78036236763000488,
                  -0.89444613456726074,
                  1.0584585666656494,
                  -0.9235069751739502,
                  0.82918047904968262,
                  -1.0649620294570923,
                  0.99628794193267822,
                  0.98316442966461182,
                  -1.306200385093689,
                  1.0863661766052246,
                  1.233934760093689,
                  0.8710898756980896,
                  1.0315687656402588,
                  -0.94433110952377319,
                  -1.2828531265258789,
                  0.88607478141784668,
                  1.2537413835525513,
                  -0.9063575267791748,
                  -0.98367422819137573,
                  0.83151930570602417,
                  1.0767219066619873,
                  0.7812914252281189,
                  0.90046471357345581,
                  0.71990537643432617,
                  -0.96493679285049438,
                  1.1317253112792969,
                  -0.72949570417404175,
                  0.81167823076248169,
                  0.78144556283950806,
                  -0.93035739660263062,
                  -1.3521848917007446,
                  -1.2826615571975708,
                  -1.2294782400131226,
                  -1.1980483531951904,
                  -0.97586983442306519,
                  -1.0289362668991089,
                  -0.97618871927261353,
                  -0.94051003456115723,
                  -1.0740112066268921,
                  -0.9450719952583313,
                  -0.74603921175003052,
                  -0.70010644197463989,
                  -0.64405810832977295,
                  -0.90138000249862671,
                  -1.0740443468093872,
                  -0.81071919202804565,
                  0.79683965444564819,
                  0.91215014457702637,
                  0.98525375127792358
                ],
                [
                  1.560532808303833,
                  1.7935450077056885,
                  1.5476371049880981,
                  1.5865885019302368,
                  1.5072945356369019,
                  -1.6913665533065796,
                  -1.6323968172073364,
                  1.5866169929504395,
                  -1.3278076648712158,
                  1.6864074468612671,
                  1.4982423782348633,
                  1.7167338132858276,
                  1.847415566444397,
                  1.6266210079193115,
                  1.8027764558792114,
                  1.6417443752288818,
                  1.564454197883606,
                  -1.7253626585006714,
                  -1.5442624092102051,
                  -1.658747673034668,
                  1.7212008237838745,
                  1.3645950555801392,
                  1.7679222822189331,
                  -1.7466964721679688,
                  -1.5728601217269897,
                  1.6386319398880005,
                  -1.6080901622772217,
                  1.6818505525588989,
                  1.4896570444107056,
                  -1.3793448209762573,
                  1.6946520805358887,
                  1.6459896564483643,
                  1.7656999826431274,
                  1.5443707704544067,
                  1.5050133466720581,
                  -1.5489540100097656,
                  1.5923010110855103,
                  -1.5183402299880981,
                  1.555159330368042,
                  -1.6910909414291382,
                  -1.5520505905151367,
                  1.7525876760482788,
                  1.6722675561904907,
                  1.6929523944854736,
                  1.4056092500686646,
                  1.5566051006317139,
                  1.8347269296646118,
                  -1.6193315982818604,
                  -1.51081383228302,
                  1.5815479755401611,
                  -1.656420111656189,
                  -1.6612143516540527,
                  -1.6154600381851196,
                  1.7656418085098267,
                  -1.9478262662887573,
                  1.3303356170654297,
                  -1.7292122840881348,
                  1.7005785703659058,
                  1.5755493640899658,
                  -1.6042678356170654,
                  1.6577427387237549,
                  1.5686131715774536,
                  1.8761918544769287,
                  1.8623263835906982,
                  -1.8172937631607056,
                  -1.6555389165878296,
                  1.8269462585449219,
                  1.7889457941055298,
                  -1.7271231412887573,
                  -1.6507543325424194,
                  1.5922183990478516,
                  1.4892417192459106,
                  1.4799721240997314,
                  1.4848384857177734,
                  1.5205380916595459,
                  -1.3787848949432373,
                  1.7598904371261597,
                  -1.3904359340667725,
                  1.6205343008041382,
                  1.5913186073303223,
                  -1.5360904932022095,
                  -1.7282911539077759,
                  -1.5171760320663452,
                  -1.5532181262969971,
                  -1.8125916719436646,
                  -1.5171322822570801,
                  -1.4392832517623901,
                  -1.3641562461853027,
                  -1.5328594446182251,
                  -1.4661602973937988,
                  -1.1998465061187744,
                  -1.4129183292388916,
                  -1.5792191028594971,
                  -1.7351788282394409,
                  -1.6413420438766479,
                  -1.4097120761871338,
                  -1.5679352283477783,
                  1.6719470024108887,
                  1.5993056297302246,
                  1.662312388420105
                ],
                [
                  2.9643344879150391,
                  6.2061939239501953,
                  3.6290984153747559,
                  3.8001554012298584,
                  5.2302265167236328,
                  -3.6938650608062744,
                  -4.5282268524169922,
                  3.3516945838928223,
                  -4.7083768844604492,
                  5.3627877235412598,
                  2.5869083404541016,
                  6.7156038284301758,
                  6.2707128524780273,
                  6.395174503326416,
                  5.9688224792480469,
                  4.3455266952514648,
                  5.8326411247253418,
                  -6.2154369354248047,
                  -6.0399317741394043,
                  -4.576387882232666,
                  5.7446060180664062,
                  3.4054915904998779,
                  5.3700008392333984,
                  -6.0977139472961426,
                  -3.1714498996734619,
                  4.4217338562011719,
                  -4.3912849426269531,
                  6.2181172370910645,
                  4.3968563079833984,
                  -4.9186196327209473,
                  5.9401693344116211,
                  4.6772918701171875,
                  4.2967686653137207,
                  3.8617918491363525,
                  4.153313159942627,
                  -5.9991941452026367,
                  4.8791265487670898,
                  -3.169769287109375,
                  2.9636621475219727,
                  -3.0389692783355713,
                  -3.4214730262756348,
                  4.3874368667602539,
                  5.4101624488830566,
                  6.5284252166748047,
                  3.2331359386444092,
                  4.6503324508666992,
                  5.3982181549072266,
                  -4.0232205390930176,
                  -3.4961342811584473,
                  3.2410519123077393,
                  -5.6069626808166504,
                  -3.3192005157470703,
                  -3.424159049987793,
                  6.1416316032409668,
                  -6.6255345344543457,
                  4.3507685661315918,
                  -6.3772382736206055,
                  5.6392126083374023,
                  6.7246379852294922,
                  -5.5327563285827637,
                  6.4133872985839844,
                  5.8537659645080566,
                  5.7332053184509277,
                  6.6999273300170898,
                  -5.5020685195922852,
                  -5.2493906021118164,
                  5.7106151580810547,
                  5.933936595916748,
                  -3.3444483280181885,
                  -4.5549240112304688,
                  4.0231828689575195,
                  6.5839343070983887,
                  2.8589134216308594,
                  3.6789984703063965,
                  4.084843635559082,
                  -4.0464963912963867,
                  6.7143220901489258,
                  -3.4974520206451416,
                  5.2554211616516113,
                  5.9519896507263184,
                  -3.1102147102355957,
                  -5.743992805480957,
                  -5.9640569686889648,
                  -4.730079174041748,
                  -5.6538639068603516,
                  -2.975806713104248,
                  -6.5813250541687012,
                  -5.6109657287597656,
                  -5.8594536781311035,
                  -5.4198498725891113,
                  -3.3168554306030273,
                  -3.1020650863647461,
                  -4.6870756149291992,
                  -4.4978246688842773,
                  -6.410672664642334,
                  -3.8361063003540039,
                  -3.5177924633026123,
                  4.0292239189147949,
                  4.2926959991455078,
                  3.3656244277954102
                ],
                [
                  3.887653112411499,
                  3.9665920734405518,
                  4.164088249206543,
                  4.4262447357177734,
                  4.0659399032592773,
                  -4.1491489410400391,
                  -4.4245009422302246,
                  3.967449426651001,
                  -3.7937817573547363,
                  4.1627497673034668,
                  4.0246520042419434,
                  3.8974876403808594,
                  4.2355589866638184,
                  3.9339742660522461,
                  4.332247257232666,
                  4.2179126739501953,
                  4.1241393089294434,
                  -4.3411874771118164,
                  -4.4513101577758789,
                  -4.1233139038085938,
                  4.2309951782226562,
                  4.2514276504516602,
                  4.3228702545166016,
                  -4.4246902465820312,
                  -3.8314356803894043,
                  4.1735692024230957,
                  -4.1276030540466309,
                  4.2619657516479492,
                  4.1963839530944824,
                  -4.0573368072509766,
                  4.3684616088867188,
                  4.3994688987731934,
                  4.144895076751709,
                  3.7705261707305908,
                  3.9457099437713623,
                  -4.2912349700927734,
                  4.103034496307373,
                  -3.9568464756011963,
                  4.1585211753845215,
                  -3.9170310497283936,
                  -3.9044289588928223,
                  4.3094611167907715,
                  4.4002437591552734,
                  4.1008381843566895,
                  3.9224021434783936,
                  3.8365941047668457,
                  3.6894214153289795,
                  -3.688751220703125,
                  -3.7972571849822998,
                  4.2380619049072266,
                  -3.8427670001983643,
                  -4.174384593963623,
                  -3.474684476852417,
                  3.8446056842803955,
                  -3.7846300601959229,
                  3.8204541206359863,
                  -4.3083410263061523,
                  3.76841139793396,
                  3.7546136379241943,
                  -4.3544831275939941,
                  3.8675320148468018,
                  4.2628617286682129,
                  4.022496223449707,
                  3.7797403335571289,
                  -4.316169261932373,
                  -4.3980240821838379,
                  4.1868853569030762,
                  4.2691030502319336,
                  -4.1451892852783203,
                  -3.8569877147674561,
                  4.3929295539855957,
                  4.2161011695861816,
                  3.7094857692718506,
                  3.8880579471588135,
                  4.2985668182373047,
                  -3.9767661094665527,
                  4.3177242279052734,
                  -3.9268412590026855,
                  3.850414514541626,
                  4.0152463912963867,
                  -3.416572093963623,
                  -4.3089652061462402,
                  -4.3389801979064941,
                  -4.4649019241333008,
                  -4.3475847244262695,
                  -4.0248494148254395,
                  -4.0557045936584473,
                  -4.0264453887939453,
                  -4.0663409233093262,
                  -3.7815241813659668,
                  -3.9727833271026611,
                  -3.7419488430023193,
                  -3.8170316219329834,
                  -4.0807242393493652,
                  -4.2127242088317871,
                  -3.8990027904510498,
                  -3.7680540084838867,
                  4.0852994918823242,
                  4.0218472480773926,
                  3.9112479686737061
                ],
                [
                  2.9821145534515381,
                  5.4207773208618164,
                  3.9579684734344482,
                  4.2687134742736816,
                  4.275658130645752,
                  -4.2648735046386719,
                  -4.5225677490234375,
                  3.3689303398132324,
                  -4.2843704223632812,
                  5.549290657043457,
                  3.1309452056884766,
                  5.7305536270141602,
                  5.7095355987548828,
                  4.5150980949401855,
                  5.1917157173156738,
                  4.4276762008666992,
                  5.8074207305908203,
                  -5.5109319686889648,
                  -4.4075984954833984,
                  -4.6467103958129883,
                  4.866447925567627,
                  3.4536330699920654,
                  4.1327385902404785,
                  -4.7702813148498535,
                  -3.9799373149871826,
                  4.5543203353881836,
                  -4.8422484397888184,
                  4.4837346076965332,
                  4.3675942420959473,
                  -4.2031264305114746,
                  5.0114259719848633,
                  5.3473801612854004,
                  4.3432621955871582,
                  3.1029376983642578,
                  4.4395880699157715,
                  -4.8925952911376953,
                  4.0800743103027344,
                  -3.146329402923584,
                  3.6913347244262695,
                  -3.5361335277557373,
                  -4.0161943435668945,
                  5.1131362915039062,
                  4.6427931785583496,
                  5.2981491088867188,
                  3.805290699005127,
                  3.9930918216705322,
                  5.2707467079162598,
                  -3.1819562911987305,
                  -3.8470818996429443,
                  4.4772052764892578,
                  -4.4908847808837891,
                  -4.0925102233886719,
                  -3.9208612442016602,
                  4.4980597496032715,
                  -5.3698477745056152,
                  4.1380019187927246,
                  -4.6369290351867676,
                  4.8668932914733887,
                  4.3533239364624023,
                  -5.1104354858398438,
                  4.4155235290527344,
                  5.0020666122436523,
                  4.3615145683288574,
                  5.0123109817504883,
                  -4.4117741584777832,
                  -4.4367775917053223,
                  4.8928122520446777,
                  4.9555220603942871,
                  -4.032597541809082,
                  -4.9594616889953613,
                  4.6850461959838867,
                  4.3969612121582031,
                  3.6105084419250488,
                  3.4007863998413086,
                  4.2170162200927734,
                  -3.758063793182373,
                  4.5106253623962402,
                  -3.3556241989135742,
                  4.1663069725036621,
                  4.894038200378418,
                  -3.6314239501953125,
                  -5.5710597038269043,
                  -5.6223163604736328,
                  -4.3413357734680176,
                  -4.4682674407958984,
                  -3.3582212924957275,
                  -4.1077747344970703,
                  -4.1852102279663086,
                  -3.8442811965942383,
                  -4.7357211112976074,
                  -3.2965025901794434,
                  -4.0056266784667969,
                  -4.0021982192993164,
                  -5.1536874771118164,
                  -4.4765949249267578,
                  -3.5157706737518311,
                  -4.1774373054504395,
                  4.9503364562988281,
                  4.686790943145752,
                  3.5633952617645264
                ],
                [
                  13.491457939147949,
                  12.706867218017578,
                  12.401928901672363,
                  13.269377708435059,
                  13.365766525268555,
                  -13.130609512329102,
                  -12.654423713684082,
                  13.215538024902344,
                  -12.370864868164062,
                  12.994341850280762,
                  13.407629013061523,
                  13.289926528930664,
                  13.284404754638672,
                  13.26591968536377,
                  13.295955657958984,
                  13.555816650390625,
                  13.093108177185059,
                  -13.351259231567383,
                  -13.076184272766113,
                  -13.051079750061035,
                  13.044641494750977,
                  13.443313598632812,
                  12.749542236328125,
                  -13.652660369873047,
                  -12.981925964355469,
                  12.701384544372559,
                  -13.311593055725098,
                  12.998326301574707,
                  13.22712230682373,
                  -12.860997200012207,
                  12.843297004699707,
                  12.877643585205078,
                  11.979227066040039,
                  12.614838600158691,
                  13.195250511169434,
                  -13.063729286193848,
                  13.390275001525879,
                  -13.182770729064941,
                  13.901384353637695,
                  -12.923982620239258,
                  -11.898344039916992,
                  12.41490650177002,
                  12.36773681640625,
                  12.390040397644043,
                  11.892258644104004,
                  13.661030769348145,
                  11.979585647583008,
                  -13.592735290527344,
                  -13.070981025695801,
                  13.559660911560059,
                  -13.222360610961914,
                  -13.129261016845703,
                  -12.199977874755859,
                  12.426499366760254,
                  -13.178245544433594,
                  12.88999080657959,
                  -12.71326732635498,
                  12.821990013122559,
                  13.638581275939941,
                  -13.014172554016113,
                  13.332117080688477,
                  13.220085144042969,
                  13.54368782043457,
                  13.565811157226562,
                  -12.67842960357666,
                  -12.774362564086914,
                  12.951626777648926,
                  13.073691368103027,
                  -12.71897029876709,
                  -13.313953399658203,
                  13.128993988037109,
                  13.875624656677246,
                  12.807612419128418,
                  12.229437828063965,
                  13.276673316955566,
                  -13.366449356079102,
                  12.531987190246582,
                  -13.338197708129883,
                  13.090608596801758,
                  13.296954154968262,
                  -12.007523536682129,
                  -13.143332481384277,
                  -13.25568962097168,
                  -12.934672355651855,
                  -12.520475387573242,
                  -13.352682113647461,
                  -13.583096504211426,
                  -13.466718673706055,
                  -13.327457427978516,
                  -12.253627777099609,
                  -13.259649276733398,
                  -12.553101539611816,
                  -12.512863159179688,
                  -13.091135025024414,
                  -13.260646820068359,
                  -13.332756042480469,
                  -12.413737297058105,
                  13.021218299865723,
                  12.937838554382324,
                  13.420133590698242
                ],
                [
                  -2.115767240524292,
                  1.0867618322372437,
                  0.16279397904872894,
                  -0.54272454977035522,
                  0.84316790103912354,
                  -0.72431367635726929,
                  -1.1488856077194214,
                  -0.74721074104309082,
                  -0.78526294231414795,
                  1.4163062572479248,
                  -2.3977584838867188,
                  0.59425663948059082,
                  0.99768197536468506,
                  0.92800784111022949,
                  1.2350385189056396,
                  -0.61688232421875,
                  1.4003835916519165,
                  -1.0511512756347656,
                  -0.94114512205123901,
                  0.72492814064025879,
                  1.1845029592514038,
                  -2.378366231918335,
                  0.93591022491455078,
                  -0.94649600982666016,
                  0.31428110599517822,
                  0.94463127851486206,
                  -1.0864789485931396,
                  1.3141095638275146,
                  1.0771331787109375,
                  -0.97818315029144287,
                  1.1647670269012451,
                  0.93112552165985107,
                  1.0336635112762451,
                  -2.5062284469604492,
                  -0.78553348779678345,
                  -0.96749752759933472,
                  -0.77605098485946655,
                  1.8283537626266479,
                  -1.5630360841751099,
                  0.44620341062545776,
                  -0.49798363447189331,
                  1.0381590127944946,
                  1.3271077871322632,
                  0.91941338777542114,
                  0.11794564127922058,
                  -0.84440314769744873,
                  1.1551493406295776,
                  0.95847511291503906,
                  0.14628839492797852,
                  -0.7085004448890686,
                  -0.64865773916244507,
                  0.28550657629966736,
                  0.38026237487792969,
                  1.1687048673629761,
                  -0.98109036684036255,
                  -0.43302452564239502,
                  -1.2215830087661743,
                  0.8558584451675415,
                  0.74524199962615967,
                  -1.0737365484237671,
                  0.8502538800239563,
                  1.143848180770874,
                  0.51998043060302734,
                  0.71928739547729492,
                  -1.1674078702926636,
                  -1.0626258850097656,
                  1.1030066013336182,
                  1.3016647100448608,
                  -0.073334909975528717,
                  -0.99908685684204102,
                  0.67378813028335571,
                  0.92502140998840332,
                  -0.16488936543464661,
                  -0.38600748777389526,
                  -0.70988696813583374,
                  0.75994026660919189,
                  0.95280981063842773,
                  2.4432568550109863,
                  -0.42103728652000427,
                  0.76548445224761963,
                  0.43925058841705322,
                  -1.126481294631958,
                  -1.5159741640090942,
                  -0.97900110483169556,
                  -1.2783743143081665,
                  1.730522632598877,
                  -0.58011281490325928,
                  -0.91191816329956055,
                  -0.69331854581832886,
                  -0.83346462249755859,
                  1.1910402774810791,
                  0.34465494751930237,
                  -0.33082723617553711,
                  0.69801139831542969,
                  -0.80194741487503052,
                  0.62096130847930908,
                  -0.57927393913269043,
                  -1.5877002477645874,
                  0.90008258819580078,
                  -0.43717595934867859
                ],
                [
                  5.2316398620605469,
                  3.6083438396453857,
                  5.0651135444641113,
                  5.1090703010559082,
                  4.1787395477294922,
                  -4.1990504264831543,
                  -3.6651785373687744,
                  5.0434417724609375,
                  -4.9857425689697266,
                  2.7640862464904785,
                  5.1580853462219238,
                  3.479327917098999,
                  3.4762113094329834,
                  4.4318475723266602,
                  3.9725959300994873,
                  4.8687281608581543,
                  3.1348044872283936,
                  -3.1886582374572754,
                  -3.9717674255371094,
                  -5.0260024070739746,
                  3.4101495742797852,
                  4.6110515594482422,
                  4.3314337730407715,
                  -3.3416545391082764,
                  -5.4775128364562988,
                  4.3429388999938965,
                  -4.0389013290405273,
                  4.1869716644287109,
                  4.0882415771484375,
                  -4.8226280212402344,
                  4.0831542015075684,
                  4.0607013702392578,
                  4.3695125579833984,
                  5.3177452087402344,
                  4.9482173919677734,
                  -3.6563248634338379,
                  5.282224178314209,
                  -5.2043070793151855,
                  5.0645837783813477,
                  -5.3286385536193848,
                  -4.4840540885925293,
                  4.0753765106201172,
                  4.1357769966125488,
                  4.0509424209594727,
                  5.2039351463317871,
                  4.9055609703063965,
                  4.0632619857788086,
                  -5.3750443458557129,
                  -4.8877205848693848,
                  5.0205173492431641,
                  -4.5462408065795898,
                  -5.1796035766601562,
                  -4.5994563102722168,
                  3.9529743194580078,
                  -4.0421347618103027,
                  5.2942519187927246,
                  -3.8078465461730957,
                  4.3051519393920898,
                  5.0193390846252441,
                  -3.064835786819458,
                  3.9601356983184814,
                  3.3526186943054199,
                  5.1508283615112305,
                  4.9002461433410645,
                  -4.3455410003662109,
                  -4.0496425628662109,
                  3.6386899948120117,
                  3.4600648880004883,
                  -4.6823797225952148,
                  -4.2476897239685059,
                  4.1928620338439941,
                  3.8295795917510986,
                  4.9442591667175293,
                  4.5028371810913086,
                  5.0170526504516602,
                  -5.117764949798584,
                  3.5742242336273193,
                  -4.9004945755004883,
                  5.1604399681091309,
                  4.4430513381958008,
                  -5.1715917587280273,
                  -3.0277650356292725,
                  -3.2002801895141602,
                  -4.3224039077758789,
                  -3.5612351894378662,
                  -5.2162580490112305,
                  -4.1581239700317383,
                  -4.1679086685180664,
                  -5.3428897857666016,
                  -5.0802946090698242,
                  -5.3901629447937012,
                  -5.3309569358825684,
                  -4.2221894264221191,
                  -5.1695613861083984,
                  -4.3170886039733887,
                  -5.1297297477722168,
                  -4.0910720825195312,
                  4.7054238319396973,
                  4.4850683212280273,
                  5.1771621704101562
                ],
                [
                  -6.0074687004089355,
                  -5.8830451965332031,
                  -6.1517829895019531,
                  -5.7309775352478027,
                  -5.9137120246887207,
                  6.1191744804382324,
                  5.948854923248291,
                  -5.679440975189209,
                  6.0560503005981445,
                  -5.238685131072998,
                  -6.0616984367370605,
                  -5.4803652763366699,
                  -5.8684172630310059,
                  -6.1486730575561523,
                  -5.7120985984802246,
                  -5.9447307586669922,
                  -5.9052443504333496,
                  5.7919416427612305,
                  5.2617082595825195,
                  5.4457340240478516,
                  -5.7977261543273926,
                  -5.9724869728088379,
                  -6.2659778594970703,
                  5.6261658668518066,
                  6.1446366310119629,
                  -5.9749064445495605,
                  5.9828329086303711,
                  -5.8899641036987305,
                  -5.8751015663146973,
                  5.9077153205871582,
                  -5.8969745635986328,
                  -5.8256254196166992,
                  -6.0285587310791016,
                  -5.9338040351867676,
                  -5.5202569961547852,
                  5.878321647644043,
                  -5.9247355461120605,
                  6.2434654235839844,
                  -5.6300525665283203,
                  6.3177218437194824,
                  6.5724339485168457,
                  -5.9545474052429199,
                  -6.0752682685852051,
                  -6.2228097915649414,
                  -6.3244118690490723,
                  -5.7581968307495117,
                  -6.1704349517822266,
                  6.1699628829956055,
                  6.4255218505859375,
                  -5.7877335548400879,
                  5.9594082832336426,
                  5.6497950553894043,
                  6.4290108680725098,
                  -6.3979377746582031,
                  5.7983722686767578,
                  -6.1173305511474609,
                  6.0777072906494141,
                  -5.8111648559570312,
                  -5.8017420768737793,
                  5.8914847373962402,
                  -6.0907497406005859,
                  -5.8176612854003906,
                  -5.4358935356140137,
                  -5.6266264915466309,
                  5.697746753692627,
                  5.6127815246582031,
                  -6.2106356620788574,
                  -5.9404215812683105,
                  6.5381011962890625,
                  5.9371414184570312,
                  -6.2788248062133789,
                  -5.3158540725708008,
                  -6.2899479866027832,
                  -6.2685093879699707,
                  -5.9252939224243164,
                  5.4794650077819824,
                  -5.7544865608215332,
                  5.5890083312988281,
                  -5.3975400924682617,
                  -5.7789087295532227,
                  6.5980539321899414,
                  5.6749653816223145,
                  5.8548622131347656,
                  5.3409609794616699,
                  5.7929954528808594,
                  6.4483699798583984,
                  5.7045149803161621,
                  5.8599944114685059,
                  5.9414210319519043,
                  6.0417232513427734,
                  6.2666316032409668,
                  6.7139649391174316,
                  6.4177899360656738,
                  5.7657771110534668,
                  5.8549323081970215,
                  5.6208319664001465,
                  6.4578714370727539,
                  -5.3309211730957031,
                  -5.7871356010437012,
                  -5.9328265190124512
                ],
                [
                  3.1171958446502686,
                  2.7579646110534668,
                  2.7947194576263428,
                  3.0224373340606689,
                  3.014523983001709,
                  -2.8915448188781738,
                  -2.9679877758026123,
                  3.2425172328948975,
                  -3.1126470565795898,
                  2.8174548149108887,
                  2.9105429649353027,
                  3.4651057720184326,
                  3.2768425941467285,
                  2.6650328636169434,
                  3.2039895057678223,
                  3.46732497215271,
                  2.5940296649932861,
                  -3.4151053428649902,
                  -3.5673291683197021,
                  -3.4861533641815186,
                  2.9699575901031494,
                  2.9940934181213379,
                  2.7805542945861816,
                  -3.441800594329834,
                  -2.6154952049255371,
                  3.2003452777862549,
                  -3.0564727783203125,
                  2.847865104675293,
                  3.191542387008667,
                  -3.1370842456817627,
                  3.0181725025177002,
                  3.1006796360015869,
                  2.8936793804168701,
                  3.497380256652832,
                  3.382673978805542,
                  -2.9103655815124512,
                  3.2557666301727295,
                  -3.0443611145019531,
                  3.3835809230804443,
                  -2.6448068618774414,
                  -2.2294929027557373,
                  2.7405533790588379,
                  2.8235445022583008,
                  2.7263247966766357,
                  2.9226083755493164,
                  3.5959322452545166,
                  2.8634159564971924,
                  -2.9719023704528809,
                  -2.6508922576904297,
                  3.044320821762085,
                  -3.1160085201263428,
                  -3.3034157752990723,
                  -2.4336297512054443,
                  2.356529712677002,
                  -3.4314143657684326,
                  2.6930983066558838,
                  -2.6788051128387451,
                  3.4686541557312012,
                  3.4987902641296387,
                  -2.8489196300506592,
                  3.2578344345092773,
                  2.7166757583618164,
                  3.3979461193084717,
                  3.7982163429260254,
                  -3.0717895030975342,
                  -3.0815927982330322,
                  2.8722491264343262,
                  3.1004648208618164,
                  -2.3995733261108398,
                  -3.2346587181091309,
                  2.6217513084411621,
                  4.1080212593078613,
                  2.6028187274932861,
                  2.8776609897613525,
                  2.9752302169799805,
                  -3.5268597602844238,
                  3.6651284694671631,
                  -3.3947911262512207,
                  4.2532520294189453,
                  2.9833483695983887,
                  -2.1499648094177246,
                  -3.0411307811737061,
                  -3.120089054107666,
                  -3.8264362812042236,
                  -2.9729740619659424,
                  -2.9287683963775635,
                  -3.0993943214416504,
                  -3.3277308940887451,
                  -2.9280397891998291,
                  -3.260631799697876,
                  -3.0377371311187744,
                  -2.2270169258117676,
                  -2.5485272407531738,
                  -3.1000571250915527,
                  -2.913832426071167,
                  -3.3139662742614746,
                  -2.3937649726867676,
                  4.155148983001709,
                  3.1428365707397461,
                  3.1574528217315674
                ],
                [
                  -13.78189754486084,
                  -14.641307830810547,
                  -14.598045349121094,
                  -14.239221572875977,
                  -13.218997955322266,
                  14.023908615112305,
                  12.975574493408203,
                  -12.598149299621582,
                  13.210877418518066,
                  -14.874483108520508,
                  -13.873205184936523,
                  -12.978865623474121,
                  -13.471357345581055,
                  -14.347599029541016,
                  -13.985881805419922,
                  -12.842116355895996,
                  -15.271617889404297,
                  13.329119682312012,
                  11.998647689819336,
                  12.326027870178223,
                  -14.540287017822266,
                  -12.870073318481445,
                  -14.526994705200195,
                  12.726036071777344,
                  14.421060562133789,
                  -13.556609153747559,
                  13.533642768859863,
                  -13.49025821685791,
                  -13.418319702148438,
                  13.092472076416016,
                  -13.623116493225098,
                  -13.256988525390625,
                  -14.241658210754395,
                  -12.772524833679199,
                  -12.477016448974609,
                  14.530966758728027,
                  -13.57856273651123,
                  13.699874877929688,
                  -12.826409339904785,
                  14.685778617858887,
                  15.571113586425781,
                  -13.852124214172363,
                  -14.255745887756348,
                  -13.991762161254883,
                  -14.389311790466309,
                  -12.371621131896973,
                  -13.552326202392578,
                  12.934613227844238,
                  14.06185245513916,
                  -13.954750061035156,
                  13.097934722900391,
                  12.760735511779785,
                  15.193164825439453,
                  -15.844206809997559,
                  13.444689750671387,
                  -14.46433162689209,
                  14.311671257019043,
                  -12.440165519714355,
                  -12.766737937927246,
                  14.329846382141113,
                  -13.649685859680176,
                  -14.143939018249512,
                  -12.707156181335449,
                  -12.300891876220703,
                  13.456920623779297,
                  12.884139060974121,
                  -14.840129852294922,
                  -13.658411026000977,
                  15.119289398193359,
                  13.705381393432617,
                  -14.273201942443848,
                  -11.789187431335449,
                  -14.072331428527832,
                  -13.972330093383789,
                  -13.699936866760254,
                  12.316770553588867,
                  -12.499817848205566,
                  12.659326553344727,
                  -11.126296997070312,
                  -13.495011329650879,
                  15.522356033325195,
                  14.076745986938477,
                  13.645380973815918,
                  11.796505928039551,
                  13.516271591186523,
                  13.839580535888672,
                  12.931206703186035,
                  13.111703872680664,
                  14.167244911193848,
                  13.100066184997559,
                  13.699969291687012,
                  16.256092071533203,
                  15.036185264587402,
                  13.223509788513184,
                  13.593969345092773,
                  12.842282295227051,
                  15.337191581726074,
                  -11.55606746673584,
                  -12.964717864990234,
                  -13.397152900695801
                ],
                [
                  15.644853591918945,
                  14.612566947937012,
                  15.14915943145752,
                  15.538031578063965,
                  15.647500991821289,
                  -14.945435523986816,
                  -15.756217956542969,
                  16.430932998657227,
                  -16.141366958618164,
                  13.707918167114258,
                  15.363418579101562,
                  15.848701477050781,
                  14.85606861114502,
                  15.340279579162598,
                  15.623290061950684,
                  15.577592849731445,
                  13.600909233093262,
                  -15.50833797454834,
                  -17.007787704467773,
                  -16.898723602294922,
                  15.138930320739746,
                  15.962223052978516,
                  14.544130325317383,
                  -15.979049682617188,
                  -15.091921806335449,
                  15.202978134155273,
                  -15.371456146240234,
                  15.490952491760254,
                  15.496053695678711,
                  -16.082443237304688,
                  15.463638305664062,
                  15.407485961914062,
                  15.021618843078613,
                  17.049398422241211,
                  16.726404190063477,
                  -14.891913414001465,
                  15.616506576538086,
                  -15.291921615600586,
                  16.33213996887207,
                  -15.130912780761719,
                  -14.492111206054688,
                  15.062861442565918,
                  14.917156219482422,
                  15.608438491821289,
                  15.515899658203125,
                  16.137304306030273,
                  15.565729141235352,
                  -15.986368179321289,
                  -14.986607551574707,
                  15.335278511047363,
                  -15.655977249145508,
                  -16.332719802856445,
                  -14.522006988525391,
                  14.479931831359863,
                  -15.301656723022461,
                  15.021858215332031,
                  -15.534256935119629,
                  16.257644653320312,
                  16.53785514831543,
                  -14.961329460144043,
                  15.566625595092773,
                  14.868047714233398,
                  16.922342300415039,
                  16.954151153564453,
                  -15.269737243652344,
                  -16.253162384033203,
                  14.241848945617676,
                  14.817867279052734,
                  -14.247649192810059,
                  -15.075074195861816,
                  14.708370208740234,
                  17.099346160888672,
                  14.842111587524414,
                  15.412216186523438,
                  15.430988311767578,
                  -16.869562149047852,
                  16.888088226318359,
                  -16.785404205322266,
                  18.106597900390625,
                  15.602685928344727,
                  -14.397335052490234,
                  -14.504169464111328,
                  -14.583120346069336,
                  -17.171014785766602,
                  -15.431911468505859,
                  -15.105225563049316,
                  -16.220623016357422,
                  -15.658347129821777,
                  -15.663478851318359,
                  -16.322940826416016,
                  -15.243168830871582,
                  -14.357668876647949,
                  -14.238628387451172,
                  -16.032966613769531,
                  -16.065574645996094,
                  -16.260589599609375,
                  -14.318069458007812,
                  18.123088836669922,
                  15.854390144348145,
                  15.597519874572754
                ],
                [
                  -3.9795985221862793,
                  -3.1290521621704102,
                  -3.4704482555389404,
                  -3.232736349105835,
                  -3.4566361904144287,
                  3.4401416778564453,
                  3.5253865718841553,
                  -3.7669792175292969,
                  3.3632185459136963,
                  -3.010225772857666,
                  -3.9757182598114014,
                  -2.7816119194030762,
                  -2.7691984176635742,
                  -3.6387970447540283,
                  -3.0757851600646973,
                  -3.2242312431335449,
                  -3.059262752532959,
                  2.9988861083984375,
                  3.1964476108551025,
                  3.0682446956634521,
                  -3.3705809116363525,
                  -3.6755051612854004,
                  -3.289722204208374,
                  3.3506183624267578,
                  3.3483188152313232,
                  -3.3098258972167969,
                  3.166515588760376,
                  -3.4101834297180176,
                  -3.5532817840576172,
                  3.5527846813201904,
                  -3.3231654167175293,
                  -2.9386234283447266,
                  -3.2987918853759766,
                  -3.8330926895141602,
                  -3.1755633354187012,
                  3.4605579376220703,
                  -3.5060596466064453,
                  3.8128833770751953,
                  -3.5769498348236084,
                  3.4490485191345215,
                  3.9849834442138672,
                  -3.2776551246643066,
                  -3.3436684608459473,
                  -3.3692760467529297,
                  -3.7703349590301514,
                  -3.6671895980834961,
                  -3.3742930889129639,
                  3.9352219104766846,
                  3.4894139766693115,
                  -3.3457226753234863,
                  3.5702919960021973,
                  3.5999867916107178,
                  3.6892178058624268,
                  -3.4710633754730225,
                  3.1328506469726562,
                  -3.5710082054138184,
                  3.5230324268341064,
                  -3.5414533615112305,
                  -3.8504154682159424,
                  3.667696475982666,
                  -3.6048297882080078,
                  -3.62432861328125,
                  -3.3652756214141846,
                  -3.3877584934234619,
                  3.6050398349761963,
                  3.7666049003601074,
                  -3.057131290435791,
                  -3.4417383670806885,
                  3.5566043853759766,
                  3.4438714981079102,
                  -2.9460318088531494,
                  -3.2070741653442383,
                  -3.5689146518707275,
                  -3.9706265926361084,
                  -2.9672117233276367,
                  3.5439410209655762,
                  -3.7782742977142334,
                  3.5040185451507568,
                  -3.5476870536804199,
                  -3.3286080360412598,
                  3.92622971534729,
                  3.2199773788452148,
                  2.8287632465362549,
                  3.3311173915863037,
                  3.3169941902160645,
                  3.9274904727935791,
                  3.4056167602539062,
                  3.6225669384002686,
                  3.7142775058746338,
                  3.6329836845397949,
                  4.2123332023620605,
                  3.7444124221801758,
                  4.1435103416442871,
                  3.1482410430908203,
                  3.3423330783843994,
                  3.7215332984924316,
                  3.5877566337585449,
                  -3.183706521987915,
                  -3.1872067451477051,
                  -3.3856320381164551
                ],
                [
                  -8.6385316848754883,
                  -10.278600692749023,
                  -9.1383399963378906,
                  -9.4051332473754883,
                  -9.9274148941040039,
                  9.1548223495483398,
                  9.4777050018310547,
                  -8.9907321929931641,
                  9.3387279510498047,
                  -10.722928047180176,
                  -8.6085224151611328,
                  -10.375269889831543,
                  -10.214607238769531,
                  -10.104659080505371,
                  -10.392967224121094,
                  -9.5030450820922852,
                  -10.490664482116699,
                  10.60515022277832,
                  9.9970293045043945,
                  9.5885286331176758,
                  -10.774735450744629,
                  -9.1065988540649414,
                  -9.6512870788574219,
                  10.669322967529297,
                  9.3635349273681641,
                  -9.3244905471801758,
                  9.6850690841674805,
                  -10.169716835021973,
                  -9.7298908233642578,
                  9.2928714752197266,
                  -10.258510589599609,
                  -9.9573993682861328,
                  -9.3697748184204102,
                  -9.2837839126586914,
                  -9.4476327896118164,
                  10.685468673706055,
                  -9.7876100540161133,
                  8.8394861221313477,
                  -8.983428955078125,
                  8.8502655029296875,
                  9.3144969940185547,
                  -9.6836318969726562,
                  -9.8036718368530273,
                  -10.18134593963623,
                  -9.1612014770507812,
                  -9.348231315612793,
                  -9.355621337890625,
                  9.2639350891113281,
                  9.090540885925293,
                  -9.0752840042114258,
                  9.7867879867553711,
                  9.4811630249023438,
                  9.1222162246704102,
                  -10.12436580657959,
                  10.193159103393555,
                  -9.5313405990600586,
                  10.469277381896973,
                  -9.8276872634887695,
                  -10.09619140625,
                  10.594072341918945,
                  -10.074289321899414,
                  -10.473740577697754,
                  -10.009288787841797,
                  -10.109128952026367,
                  9.9608802795410156,
                  10.039162635803223,
                  -10.000310897827148,
                  -10.467548370361328,
                  9.0117692947387695,
                  9.7154083251953125,
                  -9.4323320388793945,
                  -10.129904747009277,
                  -8.7367620468139648,
                  -9.1883716583251953,
                  -9.2317342758178711,
                  9.3357372283935547,
                  -10.451918601989746,
                  9.1838397979736328,
                  -9.659052848815918,
                  -9.9450197219848633,
                  8.7311697006225586,
                  10.443422317504883,
                  10.295217514038086,
                  9.8017177581787109,
                  9.984771728515625,
                  8.8415260314941406,
                  10.486952781677246,
                  9.9884510040283203,
                  9.9775972366333008,
                  9.6065759658813477,
                  8.5254983901977539,
                  8.9608745574951172,
                  9.4246997833251953,
                  9.5611839294433594,
                  10.324386596679688,
                  9.377288818359375,
                  9.5822019577026367,
                  -9.6961269378662109,
                  -9.3533220291137695,
                  -8.9965686798095703
                ],
                [
                  -13.73525333404541,
                  -15.071798324584961,
                  -16.755638122558594,
                  -15.425361633300781,
                  -12.913556098937988,
                  15.67872428894043,
                  13.329364776611328,
                  -11.49515438079834,
                  15.557904243469238,
                  -15.16819953918457,
                  -15.530027389526367,
                  -12.388520240783691,
                  -13.907164573669434,
                  -15.581096649169922,
                  -14.154291152954102,
                  -12.284670829772949,
                  -16.240442276000977,
                  12.794252395629883,
                  10.900020599365234,
                  11.684001922607422,
                  -13.798293113708496,
                  -14.290713310241699,
                  -15.844388961791992,
                  11.968910217285156,
                  16.029045104980469,
                  -14.642075538635254,
                  15.211582183837891,
                  -13.819470405578613,
                  -13.913299560546875,
                  14.088176727294922,
                  -15.094130516052246,
                  -14.037204742431641,
                  -16.198507308959961,
                  -13.091790199279785,
                  -11.21221923828125,
                  16.803207397460938,
                  -14.553741455078125,
                  14.098407745361328,
                  -11.80244255065918,
                  16.739894866943359,
                  17.787931442260742,
                  -15.886046409606934,
                  -15.704933166503906,
                  -16.554994583129883,
                  -16.281448364257812,
                  -12.217067718505859,
                  -14.759781837463379,
                  12.413050651550293,
                  16.378921508789062,
                  -16.208999633789062,
                  13.787473678588867,
                  13.42418384552002,
                  17.682064056396484,
                  -18.189735412597656,
                  14.399165153503418,
                  -16.502424240112305,
                  15.2188720703125,
                  -12.579566955566406,
                  -12.773164749145508,
                  16.011325836181641,
                  -14.458287239074707,
                  -15.341923713684082,
                  -11.597915649414062,
                  -11.873135566711426,
                  14.399251937866211,
                  12.896312713623047,
                  -16.310632705688477,
                  -14.665887832641602,
                  16.192525863647461,
                  16.18304443359375,
                  -16.758819580078125,
                  -9.8336448669433594,
                  -15.160767555236816,
                  -15.729794502258301,
                  -14.938138961791992,
                  11.124792098999023,
                  -12.387201309204102,
                  11.963291168212891,
                  -10.7239990234375,
                  -14.332633018493652,
                  17.338932037353516,
                  14.778306007385254,
                  14.533770561218262,
                  11.521900177001953,
                  13.404392242431641,
                  15.30257511138916,
                  12.462334632873535,
                  12.628504753112793,
                  14.173407554626465,
                  14.673843383789062,
                  15.147875785827637,
                  18.664846420288086,
                  16.208673477172852,
                  12.94618034362793,
                  14.42103099822998,
                  12.422947883605957,
                  17.120227813720703,
                  -10.274733543395996,
                  -13.469709396362305,
                  -13.109390258789062
                ],
                [
                  13.783397674560547,
                  13.138981819152832,
                  13.524802207946777,
                  13.794432640075684,
                  13.549838066101074,
                  -13.261360168457031,
                  -15.376874923706055,
                  15.689620018005371,
                  -15.915115356445312,
                  13.302297592163086,
                  13.631497383117676,
                  15.403485298156738,
                  14.524272918701172,
                  13.539669036865234,
                  14.971726417541504,
                  14.134608268737793,
                  12.945228576660156,
                  -14.969351768493652,
                  -16.60279655456543,
                  -15.906038284301758,
                  12.985307693481445,
                  15.201370239257812,
                  13.344618797302246,
                  -15.205085754394531,
                  -13.361330032348633,
                  14.882138252258301,
                  -13.573861122131348,
                  13.492311477661133,
                  13.471081733703613,
                  -15.768532752990723,
                  13.613459587097168,
                  14.312585830688477,
                  13.710020065307617,
                  15.479230880737305,
                  15.918524742126465,
                  -13.271313667297363,
                  13.42345142364502,
                  -13.381519317626953,
                  15.406061172485352,
                  -13.271746635437012,
                  -13.166252136230469,
                  13.66594409942627,
                  13.606950759887695,
                  15.351040840148926,
                  13.672892570495605,
                  15.575519561767578,
                  15.77601432800293,
                  -13.335428237915039,
                  -13.329768180847168,
                  13.577624320983887,
                  -15.175313949584961,
                  -15.63259220123291,
                  -13.15007495880127,
                  12.955528259277344,
